digraph Tree {
node [shape=box] ;
0 [label="Third_Moment <= 0.001\ngini = 0.961\nsamples = 172\nvalue = [1, 11, 7, 3, 12, 6, 10, 6, 15, 12, 8, 8, 6\n9, 12, 11, 6, 8, 6, 23, 6, 11, 12, 10, 7, 9\n9, 7, 10, 11]\nclass = y[19]"] ;
1 [label="Eccentricity <= 0.634\ngini = 0.142\nsamples = 10\nvalue = [0, 0, 0, 0, 0, 1, 0, 0, 0, 0, 0, 0, 0, 0\n0, 0, 0, 0, 0, 0, 0, 0, 12, 0, 0, 0, 0, 0\n0, 0]\nclass = y[22]"] ;
0 -> 1 [labeldistance=2.5, labelangle=45, headlabel="True"] ;
2 [label="gini = 0.0\nsamples = 1\nvalue = [0, 0, 0, 0, 0, 1, 0, 0, 0, 0, 0, 0, 0, 0\n0, 0, 0, 0, 0, 0, 0, 0, 0, 0, 0, 0, 0, 0\n0, 0]\nclass = y[5]"] ;
1 -> 2 ;
3 [label="gini = 0.0\nsamples = 9\nvalue = [0, 0, 0, 0, 0, 0, 0, 0, 0, 0, 0, 0, 0, 0\n0, 0, 0, 0, 0, 0, 0, 0, 12, 0, 0, 0, 0, 0\n0, 0]\nclass = y[22]"] ;
1 -> 3 ;
4 [label="Solidity <= 0.971\ngini = 0.959\nsamples = 162\nvalue = [1, 11, 7, 3, 12, 5, 10, 6, 15, 12, 8, 8, 6\n9, 12, 11, 6, 8, 6, 23, 6, 11, 0, 10, 7, 9\n9, 7, 10, 11]\nclass = y[19]"] ;
0 -> 4 [labeldistance=2.5, labelangle=-45, headlabel="False"] ;
5 [label="Isoperimetric_Factor <= 0.315\ngini = 0.948\nsamples = 113\nvalue = [0, 0, 7, 3, 12, 5, 9, 5, 15, 12, 8, 8, 0, 5\n12, 11, 6, 7, 6, 0, 2, 6, 0, 10, 7, 0, 0, 7\n2, 11]\nclass = y[8]"] ;
4 -> 5 ;
6 [label="Isoperimetric_Factor <= 0.222\ngini = 0.84\nsamples = 30\nvalue = [0, 0, 0, 0, 0, 5, 0, 4, 0, 0, 8, 0, 0, 0\n12, 0, 0, 0, 0, 0, 0, 0, 0, 0, 7, 0, 0, 7\n0, 11]\nclass = y[14]"] ;
5 -> 6 ;
7 [label="Entropy <= 1.027\ngini = 0.766\nsamples = 18\nvalue = [0, 0, 0, 0, 0, 2, 0, 0, 0, 0, 8, 0, 0, 0\n0, 0, 0, 0, 0, 0, 0, 0, 0, 0, 7, 0, 0, 7\n0, 11]\nclass = y[29]"] ;
6 -> 7 ;
8 [label="Solidity <= 0.604\ngini = 0.712\nsamples = 12\nvalue = [0, 0, 0, 0, 0, 2, 0, 0, 0, 0, 8, 0, 0, 0\n0, 0, 0, 0, 0, 0, 0, 0, 0, 0, 7, 0, 0, 7\n0, 0]\nclass = y[10]"] ;
7 -> 8 ;
9 [label="gini = 0.0\nsamples = 4\nvalue = [0, 0, 0, 0, 0, 0, 0, 0, 0, 0, 8, 0, 0, 0\n0, 0, 0, 0, 0, 0, 0, 0, 0, 0, 0, 0, 0, 0\n0, 0]\nclass = y[10]"] ;
8 -> 9 ;
10 [label="Solidity <= 0.844\ngini = 0.602\nsamples = 8\nvalue = [0, 0, 0, 0, 0, 2, 0, 0, 0, 0, 0, 0, 0, 0\n0, 0, 0, 0, 0, 0, 0, 0, 0, 0, 7, 0, 0, 7\n0, 0]\nclass = y[24]"] ;
8 -> 10 ;
11 [label="Specimen_Number <= 4.5\ngini = 0.375\nsamples = 3\nvalue = [0, 0, 0, 0, 0, 2, 0, 0, 0, 0, 0, 0, 0, 0\n0, 0, 0, 0, 0, 0, 0, 0, 0, 0, 6, 0, 0, 0\n0, 0]\nclass = y[24]"] ;
10 -> 11 ;
12 [label="gini = 0.0\nsamples = 1\nvalue = [0, 0, 0, 0, 0, 2, 0, 0, 0, 0, 0, 0, 0, 0\n0, 0, 0, 0, 0, 0, 0, 0, 0, 0, 0, 0, 0, 0\n0, 0]\nclass = y[5]"] ;
11 -> 12 ;
13 [label="gini = 0.0\nsamples = 2\nvalue = [0, 0, 0, 0, 0, 0, 0, 0, 0, 0, 0, 0, 0, 0\n0, 0, 0, 0, 0, 0, 0, 0, 0, 0, 6, 0, 0, 0\n0, 0]\nclass = y[24]"] ;
11 -> 13 ;
14 [label="Third_Moment <= 0.001\ngini = 0.219\nsamples = 5\nvalue = [0, 0, 0, 0, 0, 0, 0, 0, 0, 0, 0, 0, 0, 0\n0, 0, 0, 0, 0, 0, 0, 0, 0, 0, 1, 0, 0, 7\n0, 0]\nclass = y[27]"] ;
10 -> 14 ;
15 [label="Smoothness <= 0.003\ngini = 0.444\nsamples = 3\nvalue = [0, 0, 0, 0, 0, 0, 0, 0, 0, 0, 0, 0, 0, 0\n0, 0, 0, 0, 0, 0, 0, 0, 0, 0, 1, 0, 0, 2\n0, 0]\nclass = y[27]"] ;
14 -> 15 ;
16 [label="gini = 0.0\nsamples = 2\nvalue = [0, 0, 0, 0, 0, 0, 0, 0, 0, 0, 0, 0, 0, 0\n0, 0, 0, 0, 0, 0, 0, 0, 0, 0, 0, 0, 0, 2\n0, 0]\nclass = y[27]"] ;
15 -> 16 ;
17 [label="gini = 0.0\nsamples = 1\nvalue = [0, 0, 0, 0, 0, 0, 0, 0, 0, 0, 0, 0, 0, 0\n0, 0, 0, 0, 0, 0, 0, 0, 0, 0, 1, 0, 0, 0\n0, 0]\nclass = y[24]"] ;
15 -> 17 ;
18 [label="gini = 0.0\nsamples = 2\nvalue = [0, 0, 0, 0, 0, 0, 0, 0, 0, 0, 0, 0, 0, 0\n0, 0, 0, 0, 0, 0, 0, 0, 0, 0, 0, 0, 0, 5\n0, 0]\nclass = y[27]"] ;
14 -> 18 ;
19 [label="gini = 0.0\nsamples = 6\nvalue = [0, 0, 0, 0, 0, 0, 0, 0, 0, 0, 0, 0, 0, 0\n0, 0, 0, 0, 0, 0, 0, 0, 0, 0, 0, 0, 0, 0\n0, 11]\nclass = y[29]"] ;
7 -> 19 ;
20 [label="Elongation <= 0.606\ngini = 0.532\nsamples = 12\nvalue = [0, 0, 0, 0, 0, 3, 0, 4, 0, 0, 0, 0, 0, 0\n12, 0, 0, 0, 0, 0, 0, 0, 0, 0, 0, 0, 0, 0\n0, 0]\nclass = y[14]"] ;
6 -> 20 ;
21 [label="gini = 0.0\nsamples = 7\nvalue = [0, 0, 0, 0, 0, 0, 0, 0, 0, 0, 0, 0, 0, 0\n12, 0, 0, 0, 0, 0, 0, 0, 0, 0, 0, 0, 0, 0\n0, 0]\nclass = y[14]"] ;
20 -> 21 ;
22 [label="Stochastic_Convexity <= 0.818\ngini = 0.49\nsamples = 5\nvalue = [0, 0, 0, 0, 0, 3, 0, 4, 0, 0, 0, 0, 0, 0\n0, 0, 0, 0, 0, 0, 0, 0, 0, 0, 0, 0, 0, 0\n0, 0]\nclass = y[7]"] ;
20 -> 22 ;
23 [label="gini = 0.0\nsamples = 2\nvalue = [0, 0, 0, 0, 0, 3, 0, 0, 0, 0, 0, 0, 0, 0\n0, 0, 0, 0, 0, 0, 0, 0, 0, 0, 0, 0, 0, 0\n0, 0]\nclass = y[5]"] ;
22 -> 23 ;
24 [label="gini = 0.0\nsamples = 3\nvalue = [0, 0, 0, 0, 0, 0, 0, 4, 0, 0, 0, 0, 0, 0\n0, 0, 0, 0, 0, 0, 0, 0, 0, 0, 0, 0, 0, 0\n0, 0]\nclass = y[7]"] ;
22 -> 24 ;
25 [label="Lobedness <= 0.246\ngini = 0.924\nsamples = 83\nvalue = [0, 0, 7, 3, 12, 0, 9, 1, 15, 12, 0, 8, 0, 5\n0, 11, 6, 7, 6, 0, 2, 6, 0, 10, 0, 0, 0, 0\n2, 0]\nclass = y[8]"] ;
5 -> 25 ;
26 [label="Isoperimetric_Factor <= 0.712\ngini = 0.902\nsamples = 54\nvalue = [0, 0, 7, 3, 0, 0, 9, 0, 14, 0, 0, 4, 0, 5\n0, 8, 2, 7, 2, 0, 2, 6, 0, 10, 0, 0, 0, 0\n2, 0]\nclass = y[8]"] ;
25 -> 26 ;
27 [label="Solidity <= 0.928\ngini = 0.885\nsamples = 48\nvalue = [0, 0, 5, 3, 0, 0, 9, 0, 14, 0, 0, 4, 0, 5\n0, 8, 2, 0, 2, 0, 0, 6, 0, 10, 0, 0, 0, 0\n2, 0]\nclass = y[8]"] ;
26 -> 27 ;
28 [label="Smoothness <= 0.014\ngini = 0.625\nsamples = 14\nvalue = [0, 0, 5, 0, 0, 0, 5, 0, 10, 0, 0, 0, 0, 0\n0, 0, 0, 0, 0, 0, 0, 0, 0, 0, 0, 0, 0, 0\n0, 0]\nclass = y[8]"] ;
27 -> 28 ;
29 [label="Eccentricity <= 0.695\ngini = 0.408\nsamples = 6\nvalue = [0, 0, 2, 0, 0, 0, 5, 0, 0, 0, 0, 0, 0, 0\n0, 0, 0, 0, 0, 0, 0, 0, 0, 0, 0, 0, 0, 0\n0, 0]\nclass = y[6]"] ;
28 -> 29 ;
30 [label="gini = 0.0\nsamples = 1\nvalue = [0, 0, 2, 0, 0, 0, 0, 0, 0, 0, 0, 0, 0, 0\n0, 0, 0, 0, 0, 0, 0, 0, 0, 0, 0, 0, 0, 0\n0, 0]\nclass = y[2]"] ;
29 -> 30 ;
31 [label="gini = 0.0\nsamples = 5\nvalue = [0, 0, 0, 0, 0, 0, 5, 0, 0, 0, 0, 0, 0, 0\n0, 0, 0, 0, 0, 0, 0, 0, 0, 0, 0, 0, 0, 0\n0, 0]\nclass = y[6]"] ;
29 -> 31 ;
32 [label="Average_Contrast <= 0.147\ngini = 0.355\nsamples = 8\nvalue = [0, 0, 3, 0, 0, 0, 0, 0, 10, 0, 0, 0, 0, 0\n0, 0, 0, 0, 0, 0, 0, 0, 0, 0, 0, 0, 0, 0\n0, 0]\nclass = y[8]"] ;
28 -> 32 ;
33 [label="gini = 0.0\nsamples = 3\nvalue = [0, 0, 0, 0, 0, 0, 0, 0, 7, 0, 0, 0, 0, 0\n0, 0, 0, 0, 0, 0, 0, 0, 0, 0, 0, 0, 0, 0\n0, 0]\nclass = y[8]"] ;
32 -> 33 ;
34 [label="Third_Moment <= 0.01\ngini = 0.5\nsamples = 5\nvalue = [0, 0, 3, 0, 0, 0, 0, 0, 3, 0, 0, 0, 0, 0\n0, 0, 0, 0, 0, 0, 0, 0, 0, 0, 0, 0, 0, 0\n0, 0]\nclass = y[2]"] ;
32 -> 34 ;
35 [label="gini = 0.0\nsamples = 2\nvalue = [0, 0, 0, 0, 0, 0, 0, 0, 3, 0, 0, 0, 0, 0\n0, 0, 0, 0, 0, 0, 0, 0, 0, 0, 0, 0, 0, 0\n0, 0]\nclass = y[8]"] ;
34 -> 35 ;
36 [label="gini = 0.0\nsamples = 3\nvalue = [0, 0, 3, 0, 0, 0, 0, 0, 0, 0, 0, 0, 0, 0\n0, 0, 0, 0, 0, 0, 0, 0, 0, 0, 0, 0, 0, 0\n0, 0]\nclass = y[2]"] ;
34 -> 36 ;
37 [label="Eccentricity <= 0.539\ngini = 0.882\nsamples = 34\nvalue = [0, 0, 0, 3, 0, 0, 4, 0, 4, 0, 0, 4, 0, 5\n0, 8, 2, 0, 2, 0, 0, 6, 0, 10, 0, 0, 0, 0\n2, 0]\nclass = y[23]"] ;
27 -> 37 ;
38 [label="Maximal_Identation_Depth <= 0.015\ngini = 0.278\nsamples = 9\nvalue = [0, 0, 0, 0, 0, 0, 0, 0, 2, 0, 0, 0, 0, 0\n0, 0, 0, 0, 0, 0, 0, 0, 0, 10, 0, 0, 0, 0\n0, 0]\nclass = y[23]"] ;
37 -> 38 ;
39 [label="gini = 0.0\nsamples = 1\nvalue = [0, 0, 0, 0, 0, 0, 0, 0, 2, 0, 0, 0, 0, 0\n0, 0, 0, 0, 0, 0, 0, 0, 0, 0, 0, 0, 0, 0\n0, 0]\nclass = y[8]"] ;
38 -> 39 ;
40 [label="gini = 0.0\nsamples = 8\nvalue = [0, 0, 0, 0, 0, 0, 0, 0, 0, 0, 0, 0, 0, 0\n0, 0, 0, 0, 0, 0, 0, 0, 0, 10, 0, 0, 0, 0\n0, 0]\nclass = y[23]"] ;
38 -> 40 ;
41 [label="Entropy <= 0.849\ngini = 0.874\nsamples = 25\nvalue = [0, 0, 0, 3, 0, 0, 4, 0, 2, 0, 0, 4, 0, 5\n0, 8, 2, 0, 2, 0, 0, 6, 0, 0, 0, 0, 0, 0\n2, 0]\nclass = y[15]"] ;
37 -> 41 ;
42 [label="Maximal_Identation_Depth <= 0.026\ngini = 0.32\nsamples = 4\nvalue = [0, 0, 0, 0, 0, 0, 0, 0, 0, 0, 0, 0, 0, 0\n0, 8, 2, 0, 0, 0, 0, 0, 0, 0, 0, 0, 0, 0\n0, 0]\nclass = y[15]"] ;
41 -> 42 ;
43 [label="gini = 0.0\nsamples = 1\nvalue = [0, 0, 0, 0, 0, 0, 0, 0, 0, 0, 0, 0, 0, 0\n0, 0, 2, 0, 0, 0, 0, 0, 0, 0, 0, 0, 0, 0\n0, 0]\nclass = y[16]"] ;
42 -> 43 ;
44 [label="gini = 0.0\nsamples = 3\nvalue = [0, 0, 0, 0, 0, 0, 0, 0, 0, 0, 0, 0, 0, 0\n0, 8, 0, 0, 0, 0, 0, 0, 0, 0, 0, 0, 0, 0\n0, 0]\nclass = y[15]"] ;
42 -> 44 ;
45 [label="Solidity <= 0.957\ngini = 0.855\nsamples = 21\nvalue = [0, 0, 0, 3, 0, 0, 4, 0, 2, 0, 0, 4, 0, 5\n0, 0, 0, 0, 2, 0, 0, 6, 0, 0, 0, 0, 0, 0\n2, 0]\nclass = y[21]"] ;
41 -> 45 ;
46 [label="Uniformity <= 0.0\ngini = 0.791\nsamples = 10\nvalue = [0, 0, 0, 3, 0, 0, 4, 0, 2, 0, 0, 4, 0, 1\n0, 0, 0, 0, 1, 0, 0, 0, 0, 0, 0, 0, 0, 0\n0, 0]\nclass = y[6]"] ;
45 -> 46 ;
47 [label="gini = 0.0\nsamples = 1\nvalue = [0, 0, 0, 0, 0, 0, 4, 0, 0, 0, 0, 0, 0, 0\n0, 0, 0, 0, 0, 0, 0, 0, 0, 0, 0, 0, 0, 0\n0, 0]\nclass = y[6]"] ;
46 -> 47 ;
48 [label="Isoperimetric_Factor <= 0.556\ngini = 0.744\nsamples = 9\nvalue = [0, 0, 0, 3, 0, 0, 0, 0, 2, 0, 0, 4, 0, 1\n0, 0, 0, 0, 1, 0, 0, 0, 0, 0, 0, 0, 0, 0\n0, 0]\nclass = y[11]"] ;
46 -> 48 ;
49 [label="Uniformity <= 0.0\ngini = 0.32\nsamples = 3\nvalue = [0, 0, 0, 0, 0, 0, 0, 0, 0, 0, 0, 4, 0, 1\n0, 0, 0, 0, 0, 0, 0, 0, 0, 0, 0, 0, 0, 0\n0, 0]\nclass = y[11]"] ;
48 -> 49 ;
50 [label="gini = 0.0\nsamples = 1\nvalue = [0, 0, 0, 0, 0, 0, 0, 0, 0, 0, 0, 0, 0, 1\n0, 0, 0, 0, 0, 0, 0, 0, 0, 0, 0, 0, 0, 0\n0, 0]\nclass = y[13]"] ;
49 -> 50 ;
51 [label="gini = 0.0\nsamples = 2\nvalue = [0, 0, 0, 0, 0, 0, 0, 0, 0, 0, 0, 4, 0, 0\n0, 0, 0, 0, 0, 0, 0, 0, 0, 0, 0, 0, 0, 0\n0, 0]\nclass = y[11]"] ;
49 -> 51 ;
52 [label="Maximal_Identation_Depth <= 0.018\ngini = 0.611\nsamples = 6\nvalue = [0, 0, 0, 3, 0, 0, 0, 0, 2, 0, 0, 0, 0, 0\n0, 0, 0, 0, 1, 0, 0, 0, 0, 0, 0, 0, 0, 0\n0, 0]\nclass = y[3]"] ;
48 -> 52 ;
53 [label="gini = 0.0\nsamples = 3\nvalue = [0, 0, 0, 3, 0, 0, 0, 0, 0, 0, 0, 0, 0, 0\n0, 0, 0, 0, 0, 0, 0, 0, 0, 0, 0, 0, 0, 0\n0, 0]\nclass = y[3]"] ;
52 -> 53 ;
54 [label="Aspect_Radio <= 1.496\ngini = 0.444\nsamples = 3\nvalue = [0, 0, 0, 0, 0, 0, 0, 0, 2, 0, 0, 0, 0, 0\n0, 0, 0, 0, 1, 0, 0, 0, 0, 0, 0, 0, 0, 0\n0, 0]\nclass = y[8]"] ;
52 -> 54 ;
55 [label="gini = 0.0\nsamples = 2\nvalue = [0, 0, 0, 0, 0, 0, 0, 0, 2, 0, 0, 0, 0, 0\n0, 0, 0, 0, 0, 0, 0, 0, 0, 0, 0, 0, 0, 0\n0, 0]\nclass = y[8]"] ;
54 -> 55 ;
56 [label="gini = 0.0\nsamples = 1\nvalue = [0, 0, 0, 0, 0, 0, 0, 0, 0, 0, 0, 0, 0, 0\n0, 0, 0, 0, 1, 0, 0, 0, 0, 0, 0, 0, 0, 0\n0, 0]\nclass = y[18]"] ;
54 -> 56 ;
57 [label="Average_Contrast <= 0.18\ngini = 0.663\nsamples = 11\nvalue = [0, 0, 0, 0, 0, 0, 0, 0, 0, 0, 0, 0, 0, 4\n0, 0, 0, 0, 1, 0, 0, 6, 0, 0, 0, 0, 0, 0\n2, 0]\nclass = y[21]"] ;
45 -> 57 ;
58 [label="Eccentricity <= 0.913\ngini = 0.408\nsamples = 6\nvalue = [0, 0, 0, 0, 0, 0, 0, 0, 0, 0, 0, 0, 0, 2\n0, 0, 0, 0, 0, 0, 0, 5, 0, 0, 0, 0, 0, 0\n0, 0]\nclass = y[21]"] ;
57 -> 58 ;
59 [label="gini = 0.0\nsamples = 2\nvalue = [0, 0, 0, 0, 0, 0, 0, 0, 0, 0, 0, 0, 0, 2\n0, 0, 0, 0, 0, 0, 0, 0, 0, 0, 0, 0, 0, 0\n0, 0]\nclass = y[13]"] ;
58 -> 59 ;
60 [label="gini = 0.0\nsamples = 4\nvalue = [0, 0, 0, 0, 0, 0, 0, 0, 0, 0, 0, 0, 0, 0\n0, 0, 0, 0, 0, 0, 0, 5, 0, 0, 0, 0, 0, 0\n0, 0]\nclass = y[21]"] ;
58 -> 60 ;
61 [label="Uniformity <= 0.001\ngini = 0.722\nsamples = 5\nvalue = [0, 0, 0, 0, 0, 0, 0, 0, 0, 0, 0, 0, 0, 2\n0, 0, 0, 0, 1, 0, 0, 1, 0, 0, 0, 0, 0, 0\n2, 0]\nclass = y[13]"] ;
57 -> 61 ;
62 [label="Maximal_Identation_Depth <= 0.014\ngini = 0.625\nsamples = 4\nvalue = [0, 0, 0, 0, 0, 0, 0, 0, 0, 0, 0, 0, 0, 2\n0, 0, 0, 0, 1, 0, 0, 1, 0, 0, 0, 0, 0, 0\n0, 0]\nclass = y[13]"] ;
61 -> 62 ;
63 [label="gini = 0.0\nsamples = 2\nvalue = [0, 0, 0, 0, 0, 0, 0, 0, 0, 0, 0, 0, 0, 2\n0, 0, 0, 0, 0, 0, 0, 0, 0, 0, 0, 0, 0, 0\n0, 0]\nclass = y[13]"] ;
62 -> 63 ;
64 [label="Uniformity <= 0.001\ngini = 0.5\nsamples = 2\nvalue = [0, 0, 0, 0, 0, 0, 0, 0, 0, 0, 0, 0, 0, 0\n0, 0, 0, 0, 1, 0, 0, 1, 0, 0, 0, 0, 0, 0\n0, 0]\nclass = y[18]"] ;
62 -> 64 ;
65 [label="gini = 0.0\nsamples = 1\nvalue = [0, 0, 0, 0, 0, 0, 0, 0, 0, 0, 0, 0, 0, 0\n0, 0, 0, 0, 0, 0, 0, 1, 0, 0, 0, 0, 0, 0\n0, 0]\nclass = y[21]"] ;
64 -> 65 ;
66 [label="gini = 0.0\nsamples = 1\nvalue = [0, 0, 0, 0, 0, 0, 0, 0, 0, 0, 0, 0, 0, 0\n0, 0, 0, 0, 1, 0, 0, 0, 0, 0, 0, 0, 0, 0\n0, 0]\nclass = y[18]"] ;
64 -> 66 ;
67 [label="gini = 0.0\nsamples = 1\nvalue = [0, 0, 0, 0, 0, 0, 0, 0, 0, 0, 0, 0, 0, 0\n0, 0, 0, 0, 0, 0, 0, 0, 0, 0, 0, 0, 0, 0\n2, 0]\nclass = y[28]"] ;
61 -> 67 ;
68 [label="Third_Moment <= 0.004\ngini = 0.529\nsamples = 6\nvalue = [0, 0, 2, 0, 0, 0, 0, 0, 0, 0, 0, 0, 0, 0\n0, 0, 0, 7, 0, 0, 2, 0, 0, 0, 0, 0, 0, 0\n0, 0]\nclass = y[17]"] ;
26 -> 68 ;
69 [label="gini = 0.0\nsamples = 4\nvalue = [0, 0, 0, 0, 0, 0, 0, 0, 0, 0, 0, 0, 0, 0\n0, 0, 0, 7, 0, 0, 0, 0, 0, 0, 0, 0, 0, 0\n0, 0]\nclass = y[17]"] ;
68 -> 69 ;
70 [label="Aspect_Radio <= 1.368\ngini = 0.5\nsamples = 2\nvalue = [0, 0, 2, 0, 0, 0, 0, 0, 0, 0, 0, 0, 0, 0\n0, 0, 0, 0, 0, 0, 2, 0, 0, 0, 0, 0, 0, 0\n0, 0]\nclass = y[2]"] ;
68 -> 70 ;
71 [label="gini = 0.0\nsamples = 1\nvalue = [0, 0, 2, 0, 0, 0, 0, 0, 0, 0, 0, 0, 0, 0\n0, 0, 0, 0, 0, 0, 0, 0, 0, 0, 0, 0, 0, 0\n0, 0]\nclass = y[2]"] ;
70 -> 71 ;
72 [label="gini = 0.0\nsamples = 1\nvalue = [0, 0, 0, 0, 0, 0, 0, 0, 0, 0, 0, 0, 0, 0\n0, 0, 0, 0, 0, 0, 2, 0, 0, 0, 0, 0, 0, 0\n0, 0]\nclass = y[20]"] ;
70 -> 72 ;
73 [label="Entropy <= 1.541\ngini = 0.794\nsamples = 29\nvalue = [0, 0, 0, 0, 12, 0, 0, 1, 1, 12, 0, 4, 0, 0\n0, 3, 4, 0, 4, 0, 0, 0, 0, 0, 0, 0, 0, 0\n0, 0]\nclass = y[4]"] ;
25 -> 73 ;
74 [label="Isoperimetric_Factor <= 0.407\ngini = 0.701\nsamples = 17\nvalue = [0, 0, 0, 0, 12, 0, 0, 1, 1, 0, 0, 4, 0, 0\n0, 3, 4, 0, 0, 0, 0, 0, 0, 0, 0, 0, 0, 0\n0, 0]\nclass = y[4]"] ;
73 -> 74 ;
75 [label="Solidity <= 0.806\ngini = 0.255\nsamples = 8\nvalue = [0, 0, 0, 0, 12, 0, 0, 1, 0, 0, 0, 0, 0, 0\n0, 1, 0, 0, 0, 0, 0, 0, 0, 0, 0, 0, 0, 0\n0, 0]\nclass = y[4]"] ;
74 -> 75 ;
76 [label="gini = 0.0\nsamples = 1\nvalue = [0, 0, 0, 0, 0, 0, 0, 0, 0, 0, 0, 0, 0, 0\n0, 1, 0, 0, 0, 0, 0, 0, 0, 0, 0, 0, 0, 0\n0, 0]\nclass = y[15]"] ;
75 -> 76 ;
77 [label="Stochastic_Convexity <= 0.945\ngini = 0.142\nsamples = 7\nvalue = [0, 0, 0, 0, 12, 0, 0, 1, 0, 0, 0, 0, 0, 0\n0, 0, 0, 0, 0, 0, 0, 0, 0, 0, 0, 0, 0, 0\n0, 0]\nclass = y[4]"] ;
75 -> 77 ;
78 [label="gini = 0.0\nsamples = 6\nvalue = [0, 0, 0, 0, 12, 0, 0, 0, 0, 0, 0, 0, 0, 0\n0, 0, 0, 0, 0, 0, 0, 0, 0, 0, 0, 0, 0, 0\n0, 0]\nclass = y[4]"] ;
77 -> 78 ;
79 [label="gini = 0.0\nsamples = 1\nvalue = [0, 0, 0, 0, 0, 0, 0, 1, 0, 0, 0, 0, 0, 0\n0, 0, 0, 0, 0, 0, 0, 0, 0, 0, 0, 0, 0, 0\n0, 0]\nclass = y[7]"] ;
77 -> 79 ;
80 [label="Third_Moment <= 0.005\ngini = 0.694\nsamples = 9\nvalue = [0, 0, 0, 0, 0, 0, 0, 0, 1, 0, 0, 4, 0, 0\n0, 2, 4, 0, 0, 0, 0, 0, 0, 0, 0, 0, 0, 0\n0, 0]\nclass = y[11]"] ;
74 -> 80 ;
81 [label="gini = 0.0\nsamples = 4\nvalue = [0, 0, 0, 0, 0, 0, 0, 0, 0, 0, 0, 0, 0, 0\n0, 0, 4, 0, 0, 0, 0, 0, 0, 0, 0, 0, 0, 0\n0, 0]\nclass = y[16]"] ;
80 -> 81 ;
82 [label="Smoothness <= 0.022\ngini = 0.571\nsamples = 5\nvalue = [0, 0, 0, 0, 0, 0, 0, 0, 1, 0, 0, 4, 0, 0\n0, 2, 0, 0, 0, 0, 0, 0, 0, 0, 0, 0, 0, 0\n0, 0]\nclass = y[11]"] ;
80 -> 82 ;
83 [label="gini = 0.0\nsamples = 2\nvalue = [0, 0, 0, 0, 0, 0, 0, 0, 0, 0, 0, 4, 0, 0\n0, 0, 0, 0, 0, 0, 0, 0, 0, 0, 0, 0, 0, 0\n0, 0]\nclass = y[11]"] ;
82 -> 83 ;
84 [label="Solidity <= 0.88\ngini = 0.444\nsamples = 3\nvalue = [0, 0, 0, 0, 0, 0, 0, 0, 1, 0, 0, 0, 0, 0\n0, 2, 0, 0, 0, 0, 0, 0, 0, 0, 0, 0, 0, 0\n0, 0]\nclass = y[15]"] ;
82 -> 84 ;
85 [label="gini = 0.0\nsamples = 1\nvalue = [0, 0, 0, 0, 0, 0, 0, 0, 1, 0, 0, 0, 0, 0\n0, 0, 0, 0, 0, 0, 0, 0, 0, 0, 0, 0, 0, 0\n0, 0]\nclass = y[8]"] ;
84 -> 85 ;
86 [label="gini = 0.0\nsamples = 2\nvalue = [0, 0, 0, 0, 0, 0, 0, 0, 0, 0, 0, 0, 0, 0\n0, 2, 0, 0, 0, 0, 0, 0, 0, 0, 0, 0, 0, 0\n0, 0]\nclass = y[15]"] ;
84 -> 86 ;
87 [label="Stochastic_Convexity <= 0.981\ngini = 0.375\nsamples = 12\nvalue = [0, 0, 0, 0, 0, 0, 0, 0, 0, 12, 0, 0, 0, 0\n0, 0, 0, 0, 4, 0, 0, 0, 0, 0, 0, 0, 0, 0\n0, 0]\nclass = y[9]"] ;
73 -> 87 ;
88 [label="Elongation <= 0.411\ngini = 0.142\nsamples = 9\nvalue = [0, 0, 0, 0, 0, 0, 0, 0, 0, 12, 0, 0, 0, 0\n0, 0, 0, 0, 1, 0, 0, 0, 0, 0, 0, 0, 0, 0\n0, 0]\nclass = y[9]"] ;
87 -> 88 ;
89 [label="gini = 0.0\nsamples = 7\nvalue = [0, 0, 0, 0, 0, 0, 0, 0, 0, 11, 0, 0, 0, 0\n0, 0, 0, 0, 0, 0, 0, 0, 0, 0, 0, 0, 0, 0\n0, 0]\nclass = y[9]"] ;
88 -> 89 ;
90 [label="Maximal_Identation_Depth <= 0.047\ngini = 0.5\nsamples = 2\nvalue = [0, 0, 0, 0, 0, 0, 0, 0, 0, 1, 0, 0, 0, 0\n0, 0, 0, 0, 1, 0, 0, 0, 0, 0, 0, 0, 0, 0\n0, 0]\nclass = y[9]"] ;
88 -> 90 ;
91 [label="gini = 0.0\nsamples = 1\nvalue = [0, 0, 0, 0, 0, 0, 0, 0, 0, 0, 0, 0, 0, 0\n0, 0, 0, 0, 1, 0, 0, 0, 0, 0, 0, 0, 0, 0\n0, 0]\nclass = y[18]"] ;
90 -> 91 ;
92 [label="gini = 0.0\nsamples = 1\nvalue = [0, 0, 0, 0, 0, 0, 0, 0, 0, 1, 0, 0, 0, 0\n0, 0, 0, 0, 0, 0, 0, 0, 0, 0, 0, 0, 0, 0\n0, 0]\nclass = y[9]"] ;
90 -> 92 ;
93 [label="gini = 0.0\nsamples = 3\nvalue = [0, 0, 0, 0, 0, 0, 0, 0, 0, 0, 0, 0, 0, 0\n0, 0, 0, 0, 3, 0, 0, 0, 0, 0, 0, 0, 0, 0\n0, 0]\nclass = y[18]"] ;
87 -> 93 ;
94 [label="Eccentricity <= 0.834\ngini = 0.859\nsamples = 49\nvalue = [1, 11, 0, 0, 0, 0, 1, 1, 0, 0, 0, 0, 6, 4\n0, 0, 0, 1, 0, 23, 4, 5, 0, 0, 0, 9, 9, 0\n8, 0]\nclass = y[19]"] ;
4 -> 94 ;
95 [label="Average_Intensity <= 0.061\ngini = 0.645\nsamples = 24\nvalue = [1, 0, 0, 0, 0, 0, 0, 0, 0, 0, 0, 0, 6, 0\n0, 0, 0, 1, 0, 23, 3, 0, 0, 0, 0, 0, 9, 0\n0, 0]\nclass = y[19]"] ;
94 -> 95 ;
96 [label="Lobedness <= 0.007\ngini = 0.457\nsamples = 16\nvalue = [1, 0, 0, 0, 0, 0, 0, 0, 0, 0, 0, 0, 4, 0\n0, 0, 0, 1, 0, 23, 3, 0, 0, 0, 0, 0, 0, 0\n0, 0]\nclass = y[19]"] ;
95 -> 96 ;
97 [label="Elongation <= 0.262\ngini = 0.698\nsamples = 9\nvalue = [1, 0, 0, 0, 0, 0, 0, 0, 0, 0, 0, 0, 4, 0\n0, 0, 0, 0, 0, 5, 3, 0, 0, 0, 0, 0, 0, 0\n0, 0]\nclass = y[19]"] ;
96 -> 97 ;
98 [label="gini = 0.0\nsamples = 2\nvalue = [0, 0, 0, 0, 0, 0, 0, 0, 0, 0, 0, 0, 0, 0\n0, 0, 0, 0, 0, 5, 0, 0, 0, 0, 0, 0, 0, 0\n0, 0]\nclass = y[19]"] ;
97 -> 98 ;
99 [label="Entropy <= 1.087\ngini = 0.594\nsamples = 7\nvalue = [1, 0, 0, 0, 0, 0, 0, 0, 0, 0, 0, 0, 4, 0\n0, 0, 0, 0, 0, 0, 3, 0, 0, 0, 0, 0, 0, 0\n0, 0]\nclass = y[12]"] ;
97 -> 99 ;
100 [label="Lobedness <= 0.005\ngini = 0.375\nsamples = 4\nvalue = [1, 0, 0, 0, 0, 0, 0, 0, 0, 0, 0, 0, 0, 0\n0, 0, 0, 0, 0, 0, 3, 0, 0, 0, 0, 0, 0, 0\n0, 0]\nclass = y[20]"] ;
99 -> 100 ;
101 [label="gini = 0.0\nsamples = 3\nvalue = [0, 0, 0, 0, 0, 0, 0, 0, 0, 0, 0, 0, 0, 0\n0, 0, 0, 0, 0, 0, 3, 0, 0, 0, 0, 0, 0, 0\n0, 0]\nclass = y[20]"] ;
100 -> 101 ;
102 [label="gini = 0.0\nsamples = 1\nvalue = [1, 0, 0, 0, 0, 0, 0, 0, 0, 0, 0, 0, 0, 0\n0, 0, 0, 0, 0, 0, 0, 0, 0, 0, 0, 0, 0, 0\n0, 0]\nclass = y[0]"] ;
100 -> 102 ;
103 [label="gini = 0.0\nsamples = 3\nvalue = [0, 0, 0, 0, 0, 0, 0, 0, 0, 0, 0, 0, 4, 0\n0, 0, 0, 0, 0, 0, 0, 0, 0, 0, 0, 0, 0, 0\n0, 0]\nclass = y[12]"] ;
99 -> 103 ;
104 [label="Third_Moment <= 0.002\ngini = 0.1\nsamples = 7\nvalue = [0, 0, 0, 0, 0, 0, 0, 0, 0, 0, 0, 0, 0, 0\n0, 0, 0, 1, 0, 18, 0, 0, 0, 0, 0, 0, 0, 0\n0, 0]\nclass = y[19]"] ;
96 -> 104 ;
105 [label="gini = 0.0\nsamples = 1\nvalue = [0, 0, 0, 0, 0, 0, 0, 0, 0, 0, 0, 0, 0, 0\n0, 0, 0, 1, 0, 0, 0, 0, 0, 0, 0, 0, 0, 0\n0, 0]\nclass = y[17]"] ;
104 -> 105 ;
106 [label="gini = 0.0\nsamples = 6\nvalue = [0, 0, 0, 0, 0, 0, 0, 0, 0, 0, 0, 0, 0, 0\n0, 0, 0, 0, 0, 18, 0, 0, 0, 0, 0, 0, 0, 0\n0, 0]\nclass = y[19]"] ;
104 -> 106 ;
107 [label="Solidity <= 0.986\ngini = 0.298\nsamples = 8\nvalue = [0, 0, 0, 0, 0, 0, 0, 0, 0, 0, 0, 0, 2, 0\n0, 0, 0, 0, 0, 0, 0, 0, 0, 0, 0, 0, 9, 0\n0, 0]\nclass = y[26]"] ;
95 -> 107 ;
108 [label="Average_Contrast <= 0.172\ngini = 0.18\nsamples = 7\nvalue = [0, 0, 0, 0, 0, 0, 0, 0, 0, 0, 0, 0, 1, 0\n0, 0, 0, 0, 0, 0, 0, 0, 0, 0, 0, 0, 9, 0\n0, 0]\nclass = y[26]"] ;
107 -> 108 ;
109 [label="Entropy <= 1.632\ngini = 0.375\nsamples = 4\nvalue = [0, 0, 0, 0, 0, 0, 0, 0, 0, 0, 0, 0, 1, 0\n0, 0, 0, 0, 0, 0, 0, 0, 0, 0, 0, 0, 3, 0\n0, 0]\nclass = y[26]"] ;
108 -> 109 ;
110 [label="gini = 0.0\nsamples = 3\nvalue = [0, 0, 0, 0, 0, 0, 0, 0, 0, 0, 0, 0, 0, 0\n0, 0, 0, 0, 0, 0, 0, 0, 0, 0, 0, 0, 3, 0\n0, 0]\nclass = y[26]"] ;
109 -> 110 ;
111 [label="gini = 0.0\nsamples = 1\nvalue = [0, 0, 0, 0, 0, 0, 0, 0, 0, 0, 0, 0, 1, 0\n0, 0, 0, 0, 0, 0, 0, 0, 0, 0, 0, 0, 0, 0\n0, 0]\nclass = y[12]"] ;
109 -> 111 ;
112 [label="gini = 0.0\nsamples = 3\nvalue = [0, 0, 0, 0, 0, 0, 0, 0, 0, 0, 0, 0, 0, 0\n0, 0, 0, 0, 0, 0, 0, 0, 0, 0, 0, 0, 6, 0\n0, 0]\nclass = y[26]"] ;
108 -> 112 ;
113 [label="gini = 0.0\nsamples = 1\nvalue = [0, 0, 0, 0, 0, 0, 0, 0, 0, 0, 0, 0, 1, 0\n0, 0, 0, 0, 0, 0, 0, 0, 0, 0, 0, 0, 0, 0\n0, 0]\nclass = y[12]"] ;
107 -> 113 ;
114 [label="Average_Intensity <= 0.071\ngini = 0.806\nsamples = 25\nvalue = [0, 11, 0, 0, 0, 0, 1, 1, 0, 0, 0, 0, 0, 4\n0, 0, 0, 0, 0, 0, 1, 5, 0, 0, 0, 9, 0, 0\n8, 0]\nclass = y[1]"] ;
94 -> 114 ;
115 [label="Solidity <= 0.981\ngini = 0.697\nsamples = 18\nvalue = [0, 11, 0, 0, 0, 0, 1, 1, 0, 0, 0, 0, 0, 4\n0, 0, 0, 0, 0, 0, 1, 0, 0, 0, 0, 9, 0, 0\n0, 0]\nclass = y[1]"] ;
114 -> 115 ;
116 [label="Maximal_Identation_Depth <= 0.009\ngini = 0.688\nsamples = 7\nvalue = [0, 1, 0, 0, 0, 0, 1, 1, 0, 0, 0, 0, 0, 4\n0, 0, 0, 0, 0, 0, 1, 0, 0, 0, 0, 0, 0, 0\n0, 0]\nclass = y[13]"] ;
115 -> 116 ;
117 [label="gini = 0.0\nsamples = 3\nvalue = [0, 0, 0, 0, 0, 0, 0, 0, 0, 0, 0, 0, 0, 4\n0, 0, 0, 0, 0, 0, 0, 0, 0, 0, 0, 0, 0, 0\n0, 0]\nclass = y[13]"] ;
116 -> 117 ;
118 [label="Stochastic_Convexity <= 0.991\ngini = 0.75\nsamples = 4\nvalue = [0, 1, 0, 0, 0, 0, 1, 1, 0, 0, 0, 0, 0, 0\n0, 0, 0, 0, 0, 0, 1, 0, 0, 0, 0, 0, 0, 0\n0, 0]\nclass = y[1]"] ;
116 -> 118 ;
119 [label="gini = 0.0\nsamples = 1\nvalue = [0, 0, 0, 0, 0, 0, 0, 1, 0, 0, 0, 0, 0, 0\n0, 0, 0, 0, 0, 0, 0, 0, 0, 0, 0, 0, 0, 0\n0, 0]\nclass = y[7]"] ;
118 -> 119 ;
120 [label="Lobedness <= 0.016\ngini = 0.667\nsamples = 3\nvalue = [0, 1, 0, 0, 0, 0, 1, 0, 0, 0, 0, 0, 0, 0\n0, 0, 0, 0, 0, 0, 1, 0, 0, 0, 0, 0, 0, 0\n0, 0]\nclass = y[1]"] ;
118 -> 120 ;
121 [label="gini = 0.0\nsamples = 1\nvalue = [0, 0, 0, 0, 0, 0, 0, 0, 0, 0, 0, 0, 0, 0\n0, 0, 0, 0, 0, 0, 1, 0, 0, 0, 0, 0, 0, 0\n0, 0]\nclass = y[20]"] ;
120 -> 121 ;
122 [label="Smoothness <= 0.006\ngini = 0.5\nsamples = 2\nvalue = [0, 1, 0, 0, 0, 0, 1, 0, 0, 0, 0, 0, 0, 0\n0, 0, 0, 0, 0, 0, 0, 0, 0, 0, 0, 0, 0, 0\n0, 0]\nclass = y[1]"] ;
120 -> 122 ;
123 [label="gini = 0.0\nsamples = 1\nvalue = [0, 0, 0, 0, 0, 0, 1, 0, 0, 0, 0, 0, 0, 0\n0, 0, 0, 0, 0, 0, 0, 0, 0, 0, 0, 0, 0, 0\n0, 0]\nclass = y[6]"] ;
122 -> 123 ;
124 [label="gini = 0.0\nsamples = 1\nvalue = [0, 1, 0, 0, 0, 0, 0, 0, 0, 0, 0, 0, 0, 0\n0, 0, 0, 0, 0, 0, 0, 0, 0, 0, 0, 0, 0, 0\n0, 0]\nclass = y[1]"] ;
122 -> 124 ;
125 [label="Stochastic_Convexity <= 0.999\ngini = 0.499\nsamples = 11\nvalue = [0, 10, 0, 0, 0, 0, 0, 0, 0, 0, 0, 0, 0, 0\n0, 0, 0, 0, 0, 0, 0, 0, 0, 0, 0, 9, 0, 0\n0, 0]\nclass = y[1]"] ;
115 -> 125 ;
126 [label="gini = 0.0\nsamples = 2\nvalue = [0, 0, 0, 0, 0, 0, 0, 0, 0, 0, 0, 0, 0, 0\n0, 0, 0, 0, 0, 0, 0, 0, 0, 0, 0, 4, 0, 0\n0, 0]\nclass = y[25]"] ;
125 -> 126 ;
127 [label="Entropy <= 0.714\ngini = 0.444\nsamples = 9\nvalue = [0, 10, 0, 0, 0, 0, 0, 0, 0, 0, 0, 0, 0, 0\n0, 0, 0, 0, 0, 0, 0, 0, 0, 0, 0, 5, 0, 0\n0, 0]\nclass = y[1]"] ;
125 -> 127 ;
128 [label="gini = 0.0\nsamples = 2\nvalue = [0, 0, 0, 0, 0, 0, 0, 0, 0, 0, 0, 0, 0, 0\n0, 0, 0, 0, 0, 0, 0, 0, 0, 0, 0, 3, 0, 0\n0, 0]\nclass = y[25]"] ;
127 -> 128 ;
129 [label="Average_Intensity <= 0.038\ngini = 0.278\nsamples = 7\nvalue = [0, 10, 0, 0, 0, 0, 0, 0, 0, 0, 0, 0, 0, 0\n0, 0, 0, 0, 0, 0, 0, 0, 0, 0, 0, 2, 0, 0\n0, 0]\nclass = y[1]"] ;
127 -> 129 ;
130 [label="gini = 0.0\nsamples = 4\nvalue = [0, 7, 0, 0, 0, 0, 0, 0, 0, 0, 0, 0, 0, 0\n0, 0, 0, 0, 0, 0, 0, 0, 0, 0, 0, 0, 0, 0\n0, 0]\nclass = y[1]"] ;
129 -> 130 ;
131 [label="Solidity <= 0.99\ngini = 0.48\nsamples = 3\nvalue = [0, 3, 0, 0, 0, 0, 0, 0, 0, 0, 0, 0, 0, 0\n0, 0, 0, 0, 0, 0, 0, 0, 0, 0, 0, 2, 0, 0\n0, 0]\nclass = y[1]"] ;
129 -> 131 ;
132 [label="gini = 0.0\nsamples = 2\nvalue = [0, 0, 0, 0, 0, 0, 0, 0, 0, 0, 0, 0, 0, 0\n0, 0, 0, 0, 0, 0, 0, 0, 0, 0, 0, 2, 0, 0\n0, 0]\nclass = y[25]"] ;
131 -> 132 ;
133 [label="gini = 0.0\nsamples = 1\nvalue = [0, 3, 0, 0, 0, 0, 0, 0, 0, 0, 0, 0, 0, 0\n0, 0, 0, 0, 0, 0, 0, 0, 0, 0, 0, 0, 0, 0\n0, 0]\nclass = y[1]"] ;
131 -> 133 ;
134 [label="Elongation <= 0.572\ngini = 0.473\nsamples = 7\nvalue = [0, 0, 0, 0, 0, 0, 0, 0, 0, 0, 0, 0, 0, 0\n0, 0, 0, 0, 0, 0, 0, 5, 0, 0, 0, 0, 0, 0\n8, 0]\nclass = y[28]"] ;
114 -> 134 ;
135 [label="gini = 0.0\nsamples = 3\nvalue = [0, 0, 0, 0, 0, 0, 0, 0, 0, 0, 0, 0, 0, 0\n0, 0, 0, 0, 0, 0, 0, 5, 0, 0, 0, 0, 0, 0\n0, 0]\nclass = y[21]"] ;
134 -> 135 ;
136 [label="gini = 0.0\nsamples = 4\nvalue = [0, 0, 0, 0, 0, 0, 0, 0, 0, 0, 0, 0, 0, 0\n0, 0, 0, 0, 0, 0, 0, 0, 0, 0, 0, 0, 0, 0\n8, 0]\nclass = y[28]"] ;
134 -> 136 ;
}